digraph Tree {
node [shape=box, style="filled, rounded", color="black", fontname=helvetica] ;
edge [fontname=helvetica] ;
0 [label="TotalWorkingYears <= 1.5\ngini = 0.269\nsamples = 1176\nvalue = [988, 188]\nclass = y[0]", fillcolor="#ea995f"] ;
1 [label="MaritalStatus_Single <= 0.5\ngini = 0.5\nsamples = 78\nvalue = [39, 39]\nclass = y[0]", fillcolor="#ffffff"] ;
0 -> 1 [labeldistance=2.5, labelangle=45, headlabel="True"] ;
2 [label="DistanceFromHome <= 16.5\ngini = 0.426\nsamples = 39\nvalue = [27, 12]\nclass = y[0]", fillcolor="#f1b991"] ;
1 -> 2 ;
3 [label="BusinessTravel_Travel_Frequently <= 0.5\ngini = 0.312\nsamples = 31\nvalue = [25, 6]\nclass = y[0]", fillcolor="#eb9f69"] ;
2 -> 3 ;
4 [label="JobSatisfaction <= 1.5\ngini = 0.198\nsamples = 27\nvalue = [24, 3]\nclass = y[0]", fillcolor="#e89152"] ;
3 -> 4 ;
5 [label="OverTime_Yes <= 0.5\ngini = 0.5\nsamples = 6\nvalue = [3, 3]\nclass = y[0]", fillcolor="#ffffff"] ;
4 -> 5 ;
6 [label="gini = 0.0\nsamples = 3\nvalue = [3, 0]\nclass = y[0]", fillcolor="#e58139"] ;
5 -> 6 ;
7 [label="gini = 0.0\nsamples = 3\nvalue = [0, 3]\nclass = y[1]", fillcolor="#399de5"] ;
5 -> 7 ;
8 [label="gini = 0.0\nsamples = 21\nvalue = [21, 0]\nclass = y[0]", fillcolor="#e58139"] ;
4 -> 8 ;
9 [label="Age <= 34.0\ngini = 0.375\nsamples = 4\nvalue = [1, 3]\nclass = y[1]", fillcolor="#7bbeee"] ;
3 -> 9 ;
10 [label="gini = 0.0\nsamples = 3\nvalue = [0, 3]\nclass = y[1]", fillcolor="#399de5"] ;
9 -> 10 ;
11 [label="gini = 0.0\nsamples = 1\nvalue = [1, 0]\nclass = y[0]", fillcolor="#e58139"] ;
9 -> 11 ;
12 [label="HourlyRate <= 62.5\ngini = 0.375\nsamples = 8\nvalue = [2, 6]\nclass = y[1]", fillcolor="#7bbeee"] ;
2 -> 12 ;
13 [label="gini = 0.0\nsamples = 5\nvalue = [0, 5]\nclass = y[1]", fillcolor="#399de5"] ;
12 -> 13 ;
14 [label="Gender_Female <= 0.5\ngini = 0.444\nsamples = 3\nvalue = [2, 1]\nclass = y[0]", fillcolor="#f2c09c"] ;
12 -> 14 ;
15 [label="gini = 0.0\nsamples = 2\nvalue = [2, 0]\nclass = y[0]", fillcolor="#e58139"] ;
14 -> 15 ;
16 [label="gini = 0.0\nsamples = 1\nvalue = [0, 1]\nclass = y[1]", fillcolor="#399de5"] ;
14 -> 16 ;
17 [label="JobRole_Research Scientist <= 0.5\ngini = 0.426\nsamples = 39\nvalue = [12, 27]\nclass = y[1]", fillcolor="#91c9f1"] ;
1 -> 17 ;
18 [label="EducationField_Medical <= 0.5\ngini = 0.26\nsamples = 26\nvalue = [4, 22]\nclass = y[1]", fillcolor="#5dafea"] ;
17 -> 18 ;
19 [label="BusinessTravel_Non-Travel <= 0.5\ngini = 0.095\nsamples = 20\nvalue = [1, 19]\nclass = y[1]", fillcolor="#43a2e6"] ;
18 -> 19 ;
20 [label="gini = 0.0\nsamples = 19\nvalue = [0, 19]\nclass = y[1]", fillcolor="#399de5"] ;
19 -> 20 ;
21 [label="gini = 0.0\nsamples = 1\nvalue = [1, 0]\nclass = y[0]", fillcolor="#e58139"] ;
19 -> 21 ;
22 [label="DistanceFromHome <= 9.5\ngini = 0.5\nsamples = 6\nvalue = [3, 3]\nclass = y[0]", fillcolor="#ffffff"] ;
18 -> 22 ;
23 [label="DailyRate <= 1063.0\ngini = 0.375\nsamples = 4\nvalue = [1, 3]\nclass = y[1]", fillcolor="#7bbeee"] ;
22 -> 23 ;
24 [label="gini = 0.0\nsamples = 3\nvalue = [0, 3]\nclass = y[1]", fillcolor="#399de5"] ;
23 -> 24 ;
25 [label="gini = 0.0\nsamples = 1\nvalue = [1, 0]\nclass = y[0]", fillcolor="#e58139"] ;
23 -> 25 ;
26 [label="gini = 0.0\nsamples = 2\nvalue = [2, 0]\nclass = y[0]", fillcolor="#e58139"] ;
22 -> 26 ;
27 [label="DailyRate <= 1089.5\ngini = 0.473\nsamples = 13\nvalue = [8, 5]\nclass = y[0]", fillcolor="#f5d0b5"] ;
17 -> 27 ;
28 [label="MonthlyRate <= 22161.5\ngini = 0.32\nsamples = 10\nvalue = [8, 2]\nclass = y[0]", fillcolor="#eca06a"] ;
27 -> 28 ;
29 [label="gini = 0.0\nsamples = 8\nvalue = [8, 0]\nclass = y[0]", fillcolor="#e58139"] ;
28 -> 29 ;
30 [label="gini = 0.0\nsamples = 2\nvalue = [0, 2]\nclass = y[1]", fillcolor="#399de5"] ;
28 -> 30 ;
31 [label="gini = 0.0\nsamples = 3\nvalue = [0, 3]\nclass = y[1]", fillcolor="#399de5"] ;
27 -> 31 ;
32 [label="OverTime_Yes <= 0.5\ngini = 0.235\nsamples = 1098\nvalue = [949, 149]\nclass = y[0]", fillcolor="#e99558"] ;
0 -> 32 [labeldistance=2.5, labelangle=-45, headlabel="False"] ;
33 [label="WorkLifeBalance <= 1.5\ngini = 0.162\nsamples = 798\nvalue = [727, 71]\nclass = y[0]", fillcolor="#e88d4c"] ;
32 -> 33 ;
34 [label="DailyRate <= 1146.0\ngini = 0.38\nsamples = 47\nvalue = [35, 12]\nclass = y[0]", fillcolor="#eeac7d"] ;
33 -> 34 ;
35 [label="JobInvolvement <= 2.5\ngini = 0.463\nsamples = 33\nvalue = [21, 12]\nclass = y[0]", fillcolor="#f4c9aa"] ;
34 -> 35 ;
36 [label="DistanceFromHome <= 13.5\ngini = 0.42\nsamples = 10\nvalue = [3, 7]\nclass = y[1]", fillcolor="#8ec7f0"] ;
35 -> 36 ;
37 [label="gini = 0.0\nsamples = 6\nvalue = [0, 6]\nclass = y[1]", fillcolor="#399de5"] ;
36 -> 37 ;
38 [label="Education <= 1.5\ngini = 0.375\nsamples = 4\nvalue = [3, 1]\nclass = y[0]", fillcolor="#eeab7b"] ;
36 -> 38 ;
39 [label="gini = 0.0\nsamples = 1\nvalue = [0, 1]\nclass = y[1]", fillcolor="#399de5"] ;
38 -> 39 ;
40 [label="gini = 0.0\nsamples = 3\nvalue = [3, 0]\nclass = y[0]", fillcolor="#e58139"] ;
38 -> 40 ;
41 [label="TrainingTimesLastYear <= 3.5\ngini = 0.34\nsamples = 23\nvalue = [18, 5]\nclass = y[0]", fillcolor="#eca470"] ;
35 -> 41 ;
42 [label="YearsSinceLastPromotion <= 5.0\ngini = 0.117\nsamples = 16\nvalue = [15, 1]\nclass = y[0]", fillcolor="#e78946"] ;
41 -> 42 ;
43 [label="gini = 0.0\nsamples = 15\nvalue = [15, 0]\nclass = y[0]", fillcolor="#e58139"] ;
42 -> 43 ;
44 [label="gini = 0.0\nsamples = 1\nvalue = [0, 1]\nclass = y[1]", fillcolor="#399de5"] ;
42 -> 44 ;
45 [label="YearsAtCompany <= 11.5\ngini = 0.49\nsamples = 7\nvalue = [3, 4]\nclass = y[1]", fillcolor="#cee6f8"] ;
41 -> 45 ;
46 [label="gini = 0.0\nsamples = 4\nvalue = [0, 4]\nclass = y[1]", fillcolor="#399de5"] ;
45 -> 46 ;
47 [label="gini = 0.0\nsamples = 3\nvalue = [3, 0]\nclass = y[0]", fillcolor="#e58139"] ;
45 -> 47 ;
48 [label="gini = 0.0\nsamples = 14\nvalue = [14, 0]\nclass = y[0]", fillcolor="#e58139"] ;
34 -> 48 ;
49 [label="TotalWorkingYears <= 39.0\ngini = 0.145\nsamples = 751\nvalue = [692, 59]\nclass = y[0]", fillcolor="#e78c4a"] ;
33 -> 49 ;
50 [label="YearsAtCompany <= 4.5\ngini = 0.143\nsamples = 750\nvalue = [692, 58]\nclass = y[0]", fillcolor="#e78c4a"] ;
49 -> 50 ;
51 [label="EnvironmentSatisfaction <= 1.5\ngini = 0.218\nsamples = 257\nvalue = [225, 32]\nclass = y[0]", fillcolor="#e99355"] ;
50 -> 51 ;
52 [label="YearsWithCurrManager <= 2.5\ngini = 0.355\nsamples = 65\nvalue = [50, 15]\nclass = y[0]", fillcolor="#eda774"] ;
51 -> 52 ;
53 [label="YearsWithCurrManager <= 0.5\ngini = 0.303\nsamples = 59\nvalue = [48, 11]\nclass = y[0]", fillcolor="#eb9e66"] ;
52 -> 53 ;
54 [label="JobInvolvement <= 2.5\ngini = 0.463\nsamples = 22\nvalue = [14, 8]\nclass = y[0]", fillcolor="#f4c9aa"] ;
53 -> 54 ;
55 [label="HourlyRate <= 42.5\ngini = 0.198\nsamples = 9\nvalue = [8, 1]\nclass = y[0]", fillcolor="#e89152"] ;
54 -> 55 ;
56 [label="gini = 0.0\nsamples = 1\nvalue = [0, 1]\nclass = y[1]", fillcolor="#399de5"] ;
55 -> 56 ;
57 [label="gini = 0.0\nsamples = 8\nvalue = [8, 0]\nclass = y[0]", fillcolor="#e58139"] ;
55 -> 57 ;
58 [label="HourlyRate <= 58.0\ngini = 0.497\nsamples = 13\nvalue = [6, 7]\nclass = y[1]", fillcolor="#e3f1fb"] ;
54 -> 58 ;
59 [label="gini = 0.0\nsamples = 4\nvalue = [4, 0]\nclass = y[0]", fillcolor="#e58139"] ;
58 -> 59 ;
60 [label="DistanceFromHome <= 9.0\ngini = 0.346\nsamples = 9\nvalue = [2, 7]\nclass = y[1]", fillcolor="#72b9ec"] ;
58 -> 60 ;
61 [label="RelationshipSatisfaction <= 2.0\ngini = 0.444\nsamples = 3\nvalue = [2, 1]\nclass = y[0]", fillcolor="#f2c09c"] ;
60 -> 61 ;
62 [label="gini = 0.0\nsamples = 1\nvalue = [0, 1]\nclass = y[1]", fillcolor="#399de5"] ;
61 -> 62 ;
63 [label="gini = 0.0\nsamples = 2\nvalue = [2, 0]\nclass = y[0]", fillcolor="#e58139"] ;
61 -> 63 ;
64 [label="gini = 0.0\nsamples = 6\nvalue = [0, 6]\nclass = y[1]", fillcolor="#399de5"] ;
60 -> 64 ;
65 [label="JobSatisfaction <= 1.5\ngini = 0.149\nsamples = 37\nvalue = [34, 3]\nclass = y[0]", fillcolor="#e78c4a"] ;
53 -> 65 ;
66 [label="WorkLifeBalance <= 2.5\ngini = 0.5\nsamples = 6\nvalue = [3, 3]\nclass = y[0]", fillcolor="#ffffff"] ;
65 -> 66 ;
67 [label="gini = 0.0\nsamples = 3\nvalue = [3, 0]\nclass = y[0]", fillcolor="#e58139"] ;
66 -> 67 ;
68 [label="gini = 0.0\nsamples = 3\nvalue = [0, 3]\nclass = y[1]", fillcolor="#399de5"] ;
66 -> 68 ;
69 [label="gini = 0.0\nsamples = 31\nvalue = [31, 0]\nclass = y[0]", fillcolor="#e58139"] ;
65 -> 69 ;
70 [label="Gender_Male <= 0.5\ngini = 0.444\nsamples = 6\nvalue = [2, 4]\nclass = y[1]", fillcolor="#9ccef2"] ;
52 -> 70 ;
71 [label="JobInvolvement <= 1.5\ngini = 0.444\nsamples = 3\nvalue = [2, 1]\nclass = y[0]", fillcolor="#f2c09c"] ;
70 -> 71 ;
72 [label="gini = 0.0\nsamples = 1\nvalue = [0, 1]\nclass = y[1]", fillcolor="#399de5"] ;
71 -> 72 ;
73 [label="gini = 0.0\nsamples = 2\nvalue = [2, 0]\nclass = y[0]", fillcolor="#e58139"] ;
71 -> 73 ;
74 [label="gini = 0.0\nsamples = 3\nvalue = [0, 3]\nclass = y[1]", fillcolor="#399de5"] ;
70 -> 74 ;
75 [label="EducationField_Life Sciences <= 0.5\ngini = 0.161\nsamples = 192\nvalue = [175, 17]\nclass = y[0]", fillcolor="#e88d4c"] ;
51 -> 75 ;
76 [label="WorkLifeBalance <= 2.5\ngini = 0.24\nsamples = 122\nvalue = [105, 17]\nclass = y[0]", fillcolor="#e99559"] ;
75 -> 76 ;
77 [label="HourlyRate <= 74.0\ngini = 0.463\nsamples = 22\nvalue = [14, 8]\nclass = y[0]", fillcolor="#f4c9aa"] ;
76 -> 77 ;
78 [label="Age <= 35.5\ngini = 0.444\nsamples = 12\nvalue = [4, 8]\nclass = y[1]", fillcolor="#9ccef2"] ;
77 -> 78 ;
79 [label="DailyRate <= 277.5\ngini = 0.198\nsamples = 9\nvalue = [1, 8]\nclass = y[1]", fillcolor="#52a9e8"] ;
78 -> 79 ;
80 [label="gini = 0.0\nsamples = 1\nvalue = [1, 0]\nclass = y[0]", fillcolor="#e58139"] ;
79 -> 80 ;
81 [label="gini = 0.0\nsamples = 8\nvalue = [0, 8]\nclass = y[1]", fillcolor="#399de5"] ;
79 -> 81 ;
82 [label="gini = 0.0\nsamples = 3\nvalue = [3, 0]\nclass = y[0]", fillcolor="#e58139"] ;
78 -> 82 ;
83 [label="gini = 0.0\nsamples = 10\nvalue = [10, 0]\nclass = y[0]", fillcolor="#e58139"] ;
77 -> 83 ;
84 [label="DailyRate <= 112.5\ngini = 0.164\nsamples = 100\nvalue = [91, 9]\nclass = y[0]", fillcolor="#e88d4d"] ;
76 -> 84 ;
85 [label="gini = 0.0\nsamples = 1\nvalue = [0, 1]\nclass = y[1]", fillcolor="#399de5"] ;
84 -> 85 ;
86 [label="MonthlyIncome <= 3079.0\ngini = 0.149\nsamples = 99\nvalue = [91, 8]\nclass = y[0]", fillcolor="#e78c4a"] ;
84 -> 86 ;
87 [label="Education <= 4.5\ngini = 0.283\nsamples = 41\nvalue = [34, 7]\nclass = y[0]", fillcolor="#ea9b62"] ;
86 -> 87 ;
88 [label="TotalWorkingYears <= 18.0\ngini = 0.224\nsamples = 39\nvalue = [34, 5]\nclass = y[0]", fillcolor="#e99456"] ;
87 -> 88 ;
89 [label="MonthlyIncome <= 3012.0\ngini = 0.188\nsamples = 38\nvalue = [34, 4]\nclass = y[0]", fillcolor="#e89050"] ;
88 -> 89 ;
90 [label="Age <= 52.5\ngini = 0.149\nsamples = 37\nvalue = [34, 3]\nclass = y[0]", fillcolor="#e78c4a"] ;
89 -> 90 ;
91 [label="MonthlyIncome <= 2751.5\ngini = 0.105\nsamples = 36\nvalue = [34, 2]\nclass = y[0]", fillcolor="#e78845"] ;
90 -> 91 ;
92 [label="gini = 0.0\nsamples = 29\nvalue = [29, 0]\nclass = y[0]", fillcolor="#e58139"] ;
91 -> 92 ;
93 [label="RelationshipSatisfaction <= 2.0\ngini = 0.408\nsamples = 7\nvalue = [5, 2]\nclass = y[0]", fillcolor="#efb388"] ;
91 -> 93 ;
94 [label="gini = 0.0\nsamples = 4\nvalue = [4, 0]\nclass = y[0]", fillcolor="#e58139"] ;
93 -> 94 ;
95 [label="DistanceFromHome <= 5.5\ngini = 0.444\nsamples = 3\nvalue = [1, 2]\nclass = y[1]", fillcolor="#9ccef2"] ;
93 -> 95 ;
96 [label="gini = 0.0\nsamples = 1\nvalue = [1, 0]\nclass = y[0]", fillcolor="#e58139"] ;
95 -> 96 ;
97 [label="gini = 0.0\nsamples = 2\nvalue = [0, 2]\nclass = y[1]", fillcolor="#399de5"] ;
95 -> 97 ;
98 [label="gini = 0.0\nsamples = 1\nvalue = [0, 1]\nclass = y[1]", fillcolor="#399de5"] ;
90 -> 98 ;
99 [label="gini = 0.0\nsamples = 1\nvalue = [0, 1]\nclass = y[1]", fillcolor="#399de5"] ;
89 -> 99 ;
100 [label="gini = 0.0\nsamples = 1\nvalue = [0, 1]\nclass = y[1]", fillcolor="#399de5"] ;
88 -> 100 ;
101 [label="gini = 0.0\nsamples = 2\nvalue = [0, 2]\nclass = y[1]", fillcolor="#399de5"] ;
87 -> 101 ;
102 [label="DailyRate <= 1458.5\ngini = 0.034\nsamples = 58\nvalue = [57, 1]\nclass = y[0]", fillcolor="#e5833c"] ;
86 -> 102 ;
103 [label="gini = 0.0\nsamples = 57\nvalue = [57, 0]\nclass = y[0]", fillcolor="#e58139"] ;
102 -> 103 ;
104 [label="gini = 0.0\nsamples = 1\nvalue = [0, 1]\nclass = y[1]", fillcolor="#399de5"] ;
102 -> 104 ;
105 [label="gini = 0.0\nsamples = 70\nvalue = [70, 0]\nclass = y[0]", fillcolor="#e58139"] ;
75 -> 105 ;
106 [label="YearsAtCompany <= 31.5\ngini = 0.1\nsamples = 493\nvalue = [467, 26]\nclass = y[0]", fillcolor="#e68844"] ;
50 -> 106 ;
107 [label="JobSatisfaction <= 2.5\ngini = 0.094\nsamples = 486\nvalue = [462, 24]\nclass = y[0]", fillcolor="#e68843"] ;
106 -> 107 ;
108 [label="JobRole_Sales Representative <= 0.5\ngini = 0.154\nsamples = 191\nvalue = [175, 16]\nclass = y[0]", fillcolor="#e78d4b"] ;
107 -> 108 ;
109 [label="MonthlyRate <= 14063.0\ngini = 0.145\nsamples = 190\nvalue = [175, 15]\nclass = y[0]", fillcolor="#e78c4a"] ;
108 -> 109 ;
110 [label="YearsWithCurrManager <= 13.5\ngini = 0.221\nsamples = 95\nvalue = [83, 12]\nclass = y[0]", fillcolor="#e99356"] ;
109 -> 110 ;
111 [label="MonthlyRate <= 13797.0\ngini = 0.207\nsamples = 94\nvalue = [83, 11]\nclass = y[0]", fillcolor="#e89253"] ;
110 -> 111 ;
112 [label="BusinessTravel_Travel_Frequently <= 0.5\ngini = 0.192\nsamples = 93\nvalue = [83, 10]\nclass = y[0]", fillcolor="#e89051"] ;
111 -> 112 ;
113 [label="MonthlyIncome <= 8567.0\ngini = 0.124\nsamples = 75\nvalue = [70, 5]\nclass = y[0]", fillcolor="#e78a47"] ;
112 -> 113 ;
114 [label="JobRole_Manufacturing Director <= 0.5\ngini = 0.037\nsamples = 53\nvalue = [52, 1]\nclass = y[0]", fillcolor="#e6833d"] ;
113 -> 114 ;
115 [label="gini = 0.0\nsamples = 45\nvalue = [45, 0]\nclass = y[0]", fillcolor="#e58139"] ;
114 -> 115 ;
116 [label="RelationshipSatisfaction <= 1.5\ngini = 0.219\nsamples = 8\nvalue = [7, 1]\nclass = y[0]", fillcolor="#e99355"] ;
114 -> 116 ;
117 [label="gini = 0.0\nsamples = 1\nvalue = [0, 1]\nclass = y[1]", fillcolor="#399de5"] ;
116 -> 117 ;
118 [label="gini = 0.0\nsamples = 7\nvalue = [7, 0]\nclass = y[0]", fillcolor="#e58139"] ;
116 -> 118 ;
119 [label="MonthlyIncome <= 9819.0\ngini = 0.298\nsamples = 22\nvalue = [18, 4]\nclass = y[0]", fillcolor="#eb9d65"] ;
113 -> 119 ;
120 [label="TrainingTimesLastYear <= 4.5\ngini = 0.375\nsamples = 4\nvalue = [1, 3]\nclass = y[1]", fillcolor="#7bbeee"] ;
119 -> 120 ;
121 [label="gini = 0.0\nsamples = 3\nvalue = [0, 3]\nclass = y[1]", fillcolor="#399de5"] ;
120 -> 121 ;
122 [label="gini = 0.0\nsamples = 1\nvalue = [1, 0]\nclass = y[0]", fillcolor="#e58139"] ;
120 -> 122 ;
123 [label="NumCompaniesWorked <= 8.5\ngini = 0.105\nsamples = 18\nvalue = [17, 1]\nclass = y[0]", fillcolor="#e78845"] ;
119 -> 123 ;
124 [label="gini = 0.0\nsamples = 17\nvalue = [17, 0]\nclass = y[0]", fillcolor="#e58139"] ;
123 -> 124 ;
125 [label="gini = 0.0\nsamples = 1\nvalue = [0, 1]\nclass = y[1]", fillcolor="#399de5"] ;
123 -> 125 ;
126 [label="MaritalStatus_Single <= 0.5\ngini = 0.401\nsamples = 18\nvalue = [13, 5]\nclass = y[0]", fillcolor="#efb185"] ;
112 -> 126 ;
127 [label="YearsInCurrentRole <= 2.0\ngini = 0.142\nsamples = 13\nvalue = [12, 1]\nclass = y[0]", fillcolor="#e78c49"] ;
126 -> 127 ;
128 [label="gini = 0.0\nsamples = 1\nvalue = [0, 1]\nclass = y[1]", fillcolor="#399de5"] ;
127 -> 128 ;
129 [label="gini = 0.0\nsamples = 12\nvalue = [12, 0]\nclass = y[0]", fillcolor="#e58139"] ;
127 -> 129 ;
130 [label="HourlyRate <= 54.0\ngini = 0.32\nsamples = 5\nvalue = [1, 4]\nclass = y[1]", fillcolor="#6ab6ec"] ;
126 -> 130 ;
131 [label="gini = 0.0\nsamples = 1\nvalue = [1, 0]\nclass = y[0]", fillcolor="#e58139"] ;
130 -> 131 ;
132 [label="gini = 0.0\nsamples = 4\nvalue = [0, 4]\nclass = y[1]", fillcolor="#399de5"] ;
130 -> 132 ;
133 [label="gini = 0.0\nsamples = 1\nvalue = [0, 1]\nclass = y[1]", fillcolor="#399de5"] ;
111 -> 133 ;
134 [label="gini = 0.0\nsamples = 1\nvalue = [0, 1]\nclass = y[1]", fillcolor="#399de5"] ;
110 -> 134 ;
135 [label="NumCompaniesWorked <= 4.5\ngini = 0.061\nsamples = 95\nvalue = [92, 3]\nclass = y[0]", fillcolor="#e6853f"] ;
109 -> 135 ;
136 [label="gini = 0.0\nsamples = 76\nvalue = [76, 0]\nclass = y[0]", fillcolor="#e58139"] ;
135 -> 136 ;
137 [label="YearsWithCurrManager <= 1.5\ngini = 0.266\nsamples = 19\nvalue = [16, 3]\nclass = y[0]", fillcolor="#ea995e"] ;
135 -> 137 ;
138 [label="EnvironmentSatisfaction <= 2.5\ngini = 0.444\nsamples = 3\nvalue = [1, 2]\nclass = y[1]", fillcolor="#9ccef2"] ;
137 -> 138 ;
139 [label="gini = 0.0\nsamples = 1\nvalue = [1, 0]\nclass = y[0]", fillcolor="#e58139"] ;
138 -> 139 ;
140 [label="gini = 0.0\nsamples = 2\nvalue = [0, 2]\nclass = y[1]", fillcolor="#399de5"] ;
138 -> 140 ;
141 [label="MonthlyIncome <= 3065.0\ngini = 0.117\nsamples = 16\nvalue = [15, 1]\nclass = y[0]", fillcolor="#e78946"] ;
137 -> 141 ;
142 [label="gini = 0.0\nsamples = 1\nvalue = [0, 1]\nclass = y[1]", fillcolor="#399de5"] ;
141 -> 142 ;
143 [label="gini = 0.0\nsamples = 15\nvalue = [15, 0]\nclass = y[0]", fillcolor="#e58139"] ;
141 -> 143 ;
144 [label="gini = 0.0\nsamples = 1\nvalue = [0, 1]\nclass = y[1]", fillcolor="#399de5"] ;
108 -> 144 ;
145 [label="MonthlyIncome <= 7632.0\ngini = 0.053\nsamples = 295\nvalue = [287, 8]\nclass = y[0]", fillcolor="#e6853f"] ;
107 -> 145 ;
146 [label="MonthlyIncome <= 2064.0\ngini = 0.02\nsamples = 196\nvalue = [194, 2]\nclass = y[0]", fillcolor="#e5823b"] ;
145 -> 146 ;
147 [label="Gender_Male <= 0.5\ngini = 0.32\nsamples = 5\nvalue = [4, 1]\nclass = y[0]", fillcolor="#eca06a"] ;
146 -> 147 ;
148 [label="gini = 0.0\nsamples = 4\nvalue = [4, 0]\nclass = y[0]", fillcolor="#e58139"] ;
147 -> 148 ;
149 [label="gini = 0.0\nsamples = 1\nvalue = [0, 1]\nclass = y[1]", fillcolor="#399de5"] ;
147 -> 149 ;
150 [label="YearsWithCurrManager <= 1.5\ngini = 0.01\nsamples = 191\nvalue = [190, 1]\nclass = y[0]", fillcolor="#e5823a"] ;
146 -> 150 ;
151 [label="JobRole_Laboratory Technician <= 0.5\ngini = 0.124\nsamples = 15\nvalue = [14, 1]\nclass = y[0]", fillcolor="#e78a47"] ;
150 -> 151 ;
152 [label="gini = 0.0\nsamples = 13\nvalue = [13, 0]\nclass = y[0]", fillcolor="#e58139"] ;
151 -> 152 ;
153 [label="YearsSinceLastPromotion <= 0.5\ngini = 0.5\nsamples = 2\nvalue = [1, 1]\nclass = y[0]", fillcolor="#ffffff"] ;
151 -> 153 ;
154 [label="gini = 0.0\nsamples = 1\nvalue = [1, 0]\nclass = y[0]", fillcolor="#e58139"] ;
153 -> 154 ;
155 [label="gini = 0.0\nsamples = 1\nvalue = [0, 1]\nclass = y[1]", fillcolor="#399de5"] ;
153 -> 155 ;
156 [label="gini = 0.0\nsamples = 176\nvalue = [176, 0]\nclass = y[0]", fillcolor="#e58139"] ;
150 -> 156 ;
157 [label="MonthlyIncome <= 7716.5\ngini = 0.114\nsamples = 99\nvalue = [93, 6]\nclass = y[0]", fillcolor="#e78946"] ;
145 -> 157 ;
158 [label="gini = 0.0\nsamples = 2\nvalue = [0, 2]\nclass = y[1]", fillcolor="#399de5"] ;
157 -> 158 ;
159 [label="MonthlyRate <= 25806.0\ngini = 0.079\nsamples = 97\nvalue = [93, 4]\nclass = y[0]", fillcolor="#e68642"] ;
157 -> 159 ;
160 [label="EnvironmentSatisfaction <= 1.5\ngini = 0.062\nsamples = 94\nvalue = [91, 3]\nclass = y[0]", fillcolor="#e68540"] ;
159 -> 160 ;
161 [label="JobRole_Healthcare Representative <= 0.5\ngini = 0.236\nsamples = 22\nvalue = [19, 3]\nclass = y[0]", fillcolor="#e99558"] ;
160 -> 161 ;
162 [label="TotalWorkingYears <= 27.5\ngini = 0.1\nsamples = 19\nvalue = [18, 1]\nclass = y[0]", fillcolor="#e68844"] ;
161 -> 162 ;
163 [label="gini = 0.0\nsamples = 17\nvalue = [17, 0]\nclass = y[0]", fillcolor="#e58139"] ;
162 -> 163 ;
164 [label="JobRole_Sales Executive <= 0.5\ngini = 0.5\nsamples = 2\nvalue = [1, 1]\nclass = y[0]", fillcolor="#ffffff"] ;
162 -> 164 ;
165 [label="gini = 0.0\nsamples = 1\nvalue = [1, 0]\nclass = y[0]", fillcolor="#e58139"] ;
164 -> 165 ;
166 [label="gini = 0.0\nsamples = 1\nvalue = [0, 1]\nclass = y[1]", fillcolor="#399de5"] ;
164 -> 166 ;
167 [label="YearsInCurrentRole <= 6.5\ngini = 0.444\nsamples = 3\nvalue = [1, 2]\nclass = y[1]", fillcolor="#9ccef2"] ;
161 -> 167 ;
168 [label="gini = 0.0\nsamples = 1\nvalue = [1, 0]\nclass = y[0]", fillcolor="#e58139"] ;
167 -> 168 ;
169 [label="gini = 0.0\nsamples = 2\nvalue = [0, 2]\nclass = y[1]", fillcolor="#399de5"] ;
167 -> 169 ;
170 [label="gini = 0.0\nsamples = 72\nvalue = [72, 0]\nclass = y[0]", fillcolor="#e58139"] ;
160 -> 170 ;
171 [label="YearsInCurrentRole <= 8.5\ngini = 0.444\nsamples = 3\nvalue = [2, 1]\nclass = y[0]", fillcolor="#f2c09c"] ;
159 -> 171 ;
172 [label="gini = 0.0\nsamples = 1\nvalue = [0, 1]\nclass = y[1]", fillcolor="#399de5"] ;
171 -> 172 ;
173 [label="gini = 0.0\nsamples = 2\nvalue = [2, 0]\nclass = y[0]", fillcolor="#e58139"] ;
171 -> 173 ;
174 [label="Gender_Male <= 0.5\ngini = 0.408\nsamples = 7\nvalue = [5, 2]\nclass = y[0]", fillcolor="#efb388"] ;
106 -> 174 ;
175 [label="gini = 0.0\nsamples = 2\nvalue = [0, 2]\nclass = y[1]", fillcolor="#399de5"] ;
174 -> 175 ;
176 [label="gini = 0.0\nsamples = 5\nvalue = [5, 0]\nclass = y[0]", fillcolor="#e58139"] ;
174 -> 176 ;
177 [label="gini = 0.0\nsamples = 1\nvalue = [0, 1]\nclass = y[1]", fillcolor="#399de5"] ;
49 -> 177 ;
178 [label="MonthlyIncome <= 3995.0\ngini = 0.385\nsamples = 300\nvalue = [222, 78]\nclass = y[0]", fillcolor="#eead7f"] ;
32 -> 178 ;
179 [label="JobInvolvement <= 3.5\ngini = 0.5\nsamples = 96\nvalue = [49, 47]\nclass = y[0]", fillcolor="#fefaf7"] ;
178 -> 179 ;
180 [label="EnvironmentSatisfaction <= 1.5\ngini = 0.498\nsamples = 86\nvalue = [40, 46]\nclass = y[1]", fillcolor="#e5f2fc"] ;
179 -> 180 ;
181 [label="HourlyRate <= 43.5\ngini = 0.245\nsamples = 14\nvalue = [2, 12]\nclass = y[1]", fillcolor="#5aade9"] ;
180 -> 181 ;
182 [label="NumCompaniesWorked <= 5.0\ngini = 0.444\nsamples = 3\nvalue = [2, 1]\nclass = y[0]", fillcolor="#f2c09c"] ;
181 -> 182 ;
183 [label="gini = 0.0\nsamples = 2\nvalue = [2, 0]\nclass = y[0]", fillcolor="#e58139"] ;
182 -> 183 ;
184 [label="gini = 0.0\nsamples = 1\nvalue = [0, 1]\nclass = y[1]", fillcolor="#399de5"] ;
182 -> 184 ;
185 [label="gini = 0.0\nsamples = 11\nvalue = [0, 11]\nclass = y[1]", fillcolor="#399de5"] ;
181 -> 185 ;
186 [label="DailyRate <= 1135.0\ngini = 0.498\nsamples = 72\nvalue = [38, 34]\nclass = y[0]", fillcolor="#fcf2ea"] ;
180 -> 186 ;
187 [label="DailyRate <= 293.5\ngini = 0.494\nsamples = 56\nvalue = [25, 31]\nclass = y[1]", fillcolor="#d9ecfa"] ;
186 -> 187 ;
188 [label="MonthlyIncome <= 2486.5\ngini = 0.346\nsamples = 9\nvalue = [7, 2]\nclass = y[0]", fillcolor="#eca572"] ;
187 -> 188 ;
189 [label="gini = 0.0\nsamples = 2\nvalue = [0, 2]\nclass = y[1]", fillcolor="#399de5"] ;
188 -> 189 ;
190 [label="gini = 0.0\nsamples = 7\nvalue = [7, 0]\nclass = y[0]", fillcolor="#e58139"] ;
188 -> 190 ;
191 [label="WorkLifeBalance <= 3.5\ngini = 0.473\nsamples = 47\nvalue = [18, 29]\nclass = y[1]", fillcolor="#b4daf5"] ;
187 -> 191 ;
192 [label="YearsSinceLastPromotion <= 0.5\ngini = 0.433\nsamples = 41\nvalue = [13, 28]\nclass = y[1]", fillcolor="#95caf1"] ;
191 -> 192 ;
193 [label="Age <= 28.5\ngini = 0.198\nsamples = 18\nvalue = [2, 16]\nclass = y[1]", fillcolor="#52a9e8"] ;
192 -> 193 ;
194 [label="DistanceFromHome <= 6.5\ngini = 0.48\nsamples = 5\nvalue = [2, 3]\nclass = y[1]", fillcolor="#bddef6"] ;
193 -> 194 ;
195 [label="gini = 0.0\nsamples = 2\nvalue = [2, 0]\nclass = y[0]", fillcolor="#e58139"] ;
194 -> 195 ;
196 [label="gini = 0.0\nsamples = 3\nvalue = [0, 3]\nclass = y[1]", fillcolor="#399de5"] ;
194 -> 196 ;
197 [label="gini = 0.0\nsamples = 13\nvalue = [0, 13]\nclass = y[1]", fillcolor="#399de5"] ;
193 -> 197 ;
198 [label="YearsWithCurrManager <= 3.5\ngini = 0.499\nsamples = 23\nvalue = [11, 12]\nclass = y[1]", fillcolor="#eff7fd"] ;
192 -> 198 ;
199 [label="WorkLifeBalance <= 1.5\ngini = 0.457\nsamples = 17\nvalue = [11, 6]\nclass = y[0]", fillcolor="#f3c6a5"] ;
198 -> 199 ;
200 [label="gini = 0.0\nsamples = 3\nvalue = [0, 3]\nclass = y[1]", fillcolor="#399de5"] ;
199 -> 200 ;
201 [label="BusinessTravel_Travel_Rarely <= 0.5\ngini = 0.337\nsamples = 14\nvalue = [11, 3]\nclass = y[0]", fillcolor="#eca36f"] ;
199 -> 201 ;
202 [label="TrainingTimesLastYear <= 2.5\ngini = 0.375\nsamples = 4\nvalue = [1, 3]\nclass = y[1]", fillcolor="#7bbeee"] ;
201 -> 202 ;
203 [label="gini = 0.0\nsamples = 3\nvalue = [0, 3]\nclass = y[1]", fillcolor="#399de5"] ;
202 -> 203 ;
204 [label="gini = 0.0\nsamples = 1\nvalue = [1, 0]\nclass = y[0]", fillcolor="#e58139"] ;
202 -> 204 ;
205 [label="gini = 0.0\nsamples = 10\nvalue = [10, 0]\nclass = y[0]", fillcolor="#e58139"] ;
201 -> 205 ;
206 [label="gini = 0.0\nsamples = 6\nvalue = [0, 6]\nclass = y[1]", fillcolor="#399de5"] ;
198 -> 206 ;
207 [label="JobRole_Sales Representative <= 0.5\ngini = 0.278\nsamples = 6\nvalue = [5, 1]\nclass = y[0]", fillcolor="#ea9a61"] ;
191 -> 207 ;
208 [label="gini = 0.0\nsamples = 5\nvalue = [5, 0]\nclass = y[0]", fillcolor="#e58139"] ;
207 -> 208 ;
209 [label="gini = 0.0\nsamples = 1\nvalue = [0, 1]\nclass = y[1]", fillcolor="#399de5"] ;
207 -> 209 ;
210 [label="Education <= 1.5\ngini = 0.305\nsamples = 16\nvalue = [13, 3]\nclass = y[0]", fillcolor="#eb9e67"] ;
186 -> 210 ;
211 [label="gini = 0.0\nsamples = 2\nvalue = [0, 2]\nclass = y[1]", fillcolor="#399de5"] ;
210 -> 211 ;
212 [label="TotalWorkingYears <= 2.5\ngini = 0.133\nsamples = 14\nvalue = [13, 1]\nclass = y[0]", fillcolor="#e78b48"] ;
210 -> 212 ;
213 [label="gini = 0.0\nsamples = 1\nvalue = [0, 1]\nclass = y[1]", fillcolor="#399de5"] ;
212 -> 213 ;
214 [label="gini = 0.0\nsamples = 13\nvalue = [13, 0]\nclass = y[0]", fillcolor="#e58139"] ;
212 -> 214 ;
215 [label="BusinessTravel_Travel_Frequently <= 0.5\ngini = 0.18\nsamples = 10\nvalue = [9, 1]\nclass = y[0]", fillcolor="#e88f4f"] ;
179 -> 215 ;
216 [label="gini = 0.0\nsamples = 9\nvalue = [9, 0]\nclass = y[0]", fillcolor="#e58139"] ;
215 -> 216 ;
217 [label="gini = 0.0\nsamples = 1\nvalue = [0, 1]\nclass = y[1]", fillcolor="#399de5"] ;
215 -> 217 ;
218 [label="MaritalStatus_Single <= 0.5\ngini = 0.258\nsamples = 204\nvalue = [173, 31]\nclass = y[0]", fillcolor="#ea985c"] ;
178 -> 218 ;
219 [label="MonthlyIncome <= 19853.0\ngini = 0.138\nsamples = 147\nvalue = [136, 11]\nclass = y[0]", fillcolor="#e78b49"] ;
218 -> 219 ;
220 [label="DistanceFromHome <= 14.5\ngini = 0.128\nsamples = 146\nvalue = [136, 10]\nclass = y[0]", fillcolor="#e78a48"] ;
219 -> 220 ;
221 [label="YearsAtCompany <= 2.5\ngini = 0.038\nsamples = 104\nvalue = [102, 2]\nclass = y[0]", fillcolor="#e6833d"] ;
220 -> 221 ;
222 [label="HourlyRate <= 43.5\ngini = 0.32\nsamples = 10\nvalue = [8, 2]\nclass = y[0]", fillcolor="#eca06a"] ;
221 -> 222 ;
223 [label="TotalWorkingYears <= 19.0\ngini = 0.444\nsamples = 3\nvalue = [1, 2]\nclass = y[1]", fillcolor="#9ccef2"] ;
222 -> 223 ;
224 [label="gini = 0.0\nsamples = 2\nvalue = [0, 2]\nclass = y[1]", fillcolor="#399de5"] ;
223 -> 224 ;
225 [label="gini = 0.0\nsamples = 1\nvalue = [1, 0]\nclass = y[0]", fillcolor="#e58139"] ;
223 -> 225 ;
226 [label="gini = 0.0\nsamples = 7\nvalue = [7, 0]\nclass = y[0]", fillcolor="#e58139"] ;
222 -> 226 ;
227 [label="gini = 0.0\nsamples = 94\nvalue = [94, 0]\nclass = y[0]", fillcolor="#e58139"] ;
221 -> 227 ;
228 [label="EnvironmentSatisfaction <= 1.5\ngini = 0.308\nsamples = 42\nvalue = [34, 8]\nclass = y[0]", fillcolor="#eb9f68"] ;
220 -> 228 ;
229 [label="WorkLifeBalance <= 3.5\ngini = 0.375\nsamples = 4\nvalue = [1, 3]\nclass = y[1]", fillcolor="#7bbeee"] ;
228 -> 229 ;
230 [label="gini = 0.0\nsamples = 3\nvalue = [0, 3]\nclass = y[1]", fillcolor="#399de5"] ;
229 -> 230 ;
231 [label="gini = 0.0\nsamples = 1\nvalue = [1, 0]\nclass = y[0]", fillcolor="#e58139"] ;
229 -> 231 ;
232 [label="Age <= 34.5\ngini = 0.229\nsamples = 38\nvalue = [33, 5]\nclass = y[0]", fillcolor="#e99457"] ;
228 -> 232 ;
233 [label="DistanceFromHome <= 24.0\ngini = 0.5\nsamples = 6\nvalue = [3, 3]\nclass = y[0]", fillcolor="#ffffff"] ;
232 -> 233 ;
234 [label="PerformanceRating <= 3.5\ngini = 0.375\nsamples = 4\nvalue = [1, 3]\nclass = y[1]", fillcolor="#7bbeee"] ;
233 -> 234 ;
235 [label="gini = 0.0\nsamples = 3\nvalue = [0, 3]\nclass = y[1]", fillcolor="#399de5"] ;
234 -> 235 ;
236 [label="gini = 0.0\nsamples = 1\nvalue = [1, 0]\nclass = y[0]", fillcolor="#e58139"] ;
234 -> 236 ;
237 [label="gini = 0.0\nsamples = 2\nvalue = [2, 0]\nclass = y[0]", fillcolor="#e58139"] ;
233 -> 237 ;
238 [label="EducationField_Marketing <= 0.5\ngini = 0.117\nsamples = 32\nvalue = [30, 2]\nclass = y[0]", fillcolor="#e78946"] ;
232 -> 238 ;
239 [label="gini = 0.0\nsamples = 29\nvalue = [29, 0]\nclass = y[0]", fillcolor="#e58139"] ;
238 -> 239 ;
240 [label="MonthlyIncome <= 13459.0\ngini = 0.444\nsamples = 3\nvalue = [1, 2]\nclass = y[1]", fillcolor="#9ccef2"] ;
238 -> 240 ;
241 [label="gini = 0.0\nsamples = 2\nvalue = [0, 2]\nclass = y[1]", fillcolor="#399de5"] ;
240 -> 241 ;
242 [label="gini = 0.0\nsamples = 1\nvalue = [1, 0]\nclass = y[0]", fillcolor="#e58139"] ;
240 -> 242 ;
243 [label="gini = 0.0\nsamples = 1\nvalue = [0, 1]\nclass = y[1]", fillcolor="#399de5"] ;
219 -> 243 ;
244 [label="JobRole_Sales Executive <= 0.5\ngini = 0.456\nsamples = 57\nvalue = [37, 20]\nclass = y[0]", fillcolor="#f3c5a4"] ;
218 -> 244 ;
245 [label="YearsSinceLastPromotion <= 6.0\ngini = 0.238\nsamples = 29\nvalue = [25, 4]\nclass = y[0]", fillcolor="#e99559"] ;
244 -> 245 ;
246 [label="HourlyRate <= 97.5\ngini = 0.142\nsamples = 26\nvalue = [24, 2]\nclass = y[0]", fillcolor="#e78c49"] ;
245 -> 246 ;
247 [label="PerformanceRating <= 3.5\ngini = 0.077\nsamples = 25\nvalue = [24, 1]\nclass = y[0]", fillcolor="#e68641"] ;
246 -> 247 ;
248 [label="gini = 0.0\nsamples = 23\nvalue = [23, 0]\nclass = y[0]", fillcolor="#e58139"] ;
247 -> 248 ;
249 [label="MonthlyRate <= 21560.5\ngini = 0.5\nsamples = 2\nvalue = [1, 1]\nclass = y[0]", fillcolor="#ffffff"] ;
247 -> 249 ;
250 [label="gini = 0.0\nsamples = 1\nvalue = [1, 0]\nclass = y[0]", fillcolor="#e58139"] ;
249 -> 250 ;
251 [label="gini = 0.0\nsamples = 1\nvalue = [0, 1]\nclass = y[1]", fillcolor="#399de5"] ;
249 -> 251 ;
252 [label="gini = 0.0\nsamples = 1\nvalue = [0, 1]\nclass = y[1]", fillcolor="#399de5"] ;
246 -> 252 ;
253 [label="WorkLifeBalance <= 3.5\ngini = 0.444\nsamples = 3\nvalue = [1, 2]\nclass = y[1]", fillcolor="#9ccef2"] ;
245 -> 253 ;
254 [label="gini = 0.0\nsamples = 2\nvalue = [0, 2]\nclass = y[1]", fillcolor="#399de5"] ;
253 -> 254 ;
255 [label="gini = 0.0\nsamples = 1\nvalue = [1, 0]\nclass = y[0]", fillcolor="#e58139"] ;
253 -> 255 ;
256 [label="YearsSinceLastPromotion <= 1.5\ngini = 0.49\nsamples = 28\nvalue = [12, 16]\nclass = y[1]", fillcolor="#cee6f8"] ;
244 -> 256 ;
257 [label="JobInvolvement <= 3.5\ngini = 0.48\nsamples = 20\nvalue = [12, 8]\nclass = y[0]", fillcolor="#f6d5bd"] ;
256 -> 257 ;
258 [label="DistanceFromHome <= 1.5\ngini = 0.415\nsamples = 17\nvalue = [12, 5]\nclass = y[0]", fillcolor="#f0b58b"] ;
257 -> 258 ;
259 [label="gini = 0.0\nsamples = 2\nvalue = [0, 2]\nclass = y[1]", fillcolor="#399de5"] ;
258 -> 259 ;
260 [label="MonthlyIncome <= 7933.0\ngini = 0.32\nsamples = 15\nvalue = [12, 3]\nclass = y[0]", fillcolor="#eca06a"] ;
258 -> 260 ;
261 [label="gini = 0.0\nsamples = 11\nvalue = [11, 0]\nclass = y[0]", fillcolor="#e58139"] ;
260 -> 261 ;
262 [label="DistanceFromHome <= 6.0\ngini = 0.375\nsamples = 4\nvalue = [1, 3]\nclass = y[1]", fillcolor="#7bbeee"] ;
260 -> 262 ;
263 [label="gini = 0.0\nsamples = 1\nvalue = [1, 0]\nclass = y[0]", fillcolor="#e58139"] ;
262 -> 263 ;
264 [label="gini = 0.0\nsamples = 3\nvalue = [0, 3]\nclass = y[1]", fillcolor="#399de5"] ;
262 -> 264 ;
265 [label="gini = 0.0\nsamples = 3\nvalue = [0, 3]\nclass = y[1]", fillcolor="#399de5"] ;
257 -> 265 ;
266 [label="gini = 0.0\nsamples = 8\nvalue = [0, 8]\nclass = y[1]", fillcolor="#399de5"] ;
256 -> 266 ;
}